<?xml version="1.0"?>
<opencv_storage>
<stage10>
  <maxWeakCount>10</maxWeakCount>
  <stageThreshold>-1.1135411262512207e+00</stageThreshold>
  <weakClassifiers>
    <_>
      <internalNodes>
        0 -1 3153793 1.9121077656745911e-01</internalNodes>
      <leafValues>
        -2.7227309346199036e-01 8.1954884529113770e-01</leafValues></_>
    <_>
      <internalNodes>
        0 -1 2756325 -4.7180812805891037e-02</internalNodes>
      <leafValues>
        8.3142948150634766e-01 -2.8065887093544006e-01</leafValues></_>
    <_>
      <internalNodes>
        0 -1 1652389 7.5786456465721130e-02</internalNodes>
      <leafValues>
        -3.3001071214675903e-01 7.2762739658355713e-01</leafValues></_>
    <_>
      <internalNodes>
        0 -1 3483342 -5.2890714257955551e-02</internalNodes>
      <leafValues>
        8.9554899930953979e-01 -2.0845609903335571e-01</leafValues></_>
    <_>
      <internalNodes>
        0 -1 121437 -1.4333074796013534e-04</internalNodes>
      <leafValues>
        -7.4771279096603394e-01 3.3748763799667358e-01</leafValues></_>
    <_>
      <internalNodes>
        0 -1 121437 8.0562756920699030e-05</internalNodes>
      <leafValues>
        2.8431814908981323e-01 -6.8142223358154297e-01</leafValues></_>
    <_>
      <internalNodes>
        0 -1 251468 9.0535264462232590e-05</internalNodes>
      <leafValues>
        1.8170055747032166e-01 -7.8702098131179810e-01</leafValues></_>
    <_>
      <internalNodes>
        0 -1 6 7.9146106145344675e-05</internalNodes>
      <leafValues>
        2.5765836238861084e-01 -7.8872764110565186e-01</leafValues></_>
    <_>
      <internalNodes>
        0 -1 2990868 3.0941851437091827e-02</internalNodes>
      <leafValues>
        -3.3776333928108215e-01 6.8067961931228638e-01</leafValues></_>
    <_>
      <internalNodes>
        0 -1 6 -6.0400747315725312e-05</internalNodes>
      <leafValues>
        -6.9395822286605835e-01 3.3965677022933960e-01</leafValues></_></weakClassifiers></stage10>
</opencv_storage>
