<?xml version="1.0"?>
<opencv_storage>
<stage14>
  <maxWeakCount>27</maxWeakCount>
  <stageThreshold>-9.5243269205093384e-01</stageThreshold>
  <weakClassifiers>
    <_>
      <internalNodes>
        0 -1 2602892 1.3187368167564273e-03</internalNodes>
      <leafValues>
        -1.3388429582118988e-01 4.1538462042808533e-01</leafValues></_>
    <_>
      <internalNodes>
        0 -1 2780048 -2.2874698042869568e-02</internalNodes>
      <leafValues>
        -8.5632318258285522e-01 7.0868603885173798e-02</leafValues></_>
    <_>
      <internalNodes>
        0 -1 948974 2.3416066542267799e-02</internalNodes>
      <leafValues>
        -1.3441380858421326e-01 4.1372424364089966e-01</leafValues></_>
    <_>
      <internalNodes>
        0 -1 2963077 7.1709393523633480e-04</internalNodes>
      <leafValues>
        -2.9426789283752441e-01 2.7404880523681641e-01</leafValues></_>
    <_>
      <internalNodes>
        0 -1 1755669 1.2442300096154213e-02</internalNodes>
      <leafValues>
        1.7576088011264801e-01 -4.2378243803977966e-01</leafValues></_>
    <_>
      <internalNodes>
        0 -1 4472169 2.8734540683217347e-04</internalNodes>
      <leafValues>
        1.4205068349838257e-01 -4.5790669322013855e-01</leafValues></_>
    <_>
      <internalNodes>
        0 -1 2965181 -1.4510758919641376e-03</internalNodes>
      <leafValues>
        4.2884659767150879e-01 -1.5336401760578156e-01</leafValues></_>
    <_>
      <internalNodes>
        0 -1 1870118 -3.4823961555957794e-02</internalNodes>
      <leafValues>
        -5.2495139837265015e-01 1.4408381283283234e-01</leafValues></_>
    <_>
      <internalNodes>
        0 -1 4217038 -2.0062550447619287e-06</internalNodes>
      <leafValues>
        2.6995843648910522e-01 -2.1803206205368042e-01</leafValues></_>
    <_>
      <internalNodes>
        0 -1 2733147 3.8333986594807357e-05</internalNodes>
      <leafValues>
        1.3025499880313873e-01 -4.2982754111289978e-01</leafValues></_>
    <_>
      <internalNodes>
        0 -1 3308659 -7.3441464337520301e-05</internalNodes>
      <leafValues>
        -4.2646586894989014e-01 1.2725165486335754e-01</leafValues></_>
    <_>
      <internalNodes>
        0 -1 3143805 -3.7590790539979935e-02</internalNodes>
      <leafValues>
        4.2599460482597351e-01 -1.4258691668510437e-01</leafValues></_>
    <_>
      <internalNodes>
        0 -1 1009397 -2.4536632001399994e-02</internalNodes>
      <leafValues>
        3.1282138824462891e-01 -2.0444905757904053e-01</leafValues></_>
    <_>
      <internalNodes>
        0 -1 2571094 2.3182969540357590e-02</internalNodes>
      <leafValues>
        -2.1429151296615601e-01 2.6633262634277344e-01</leafValues></_>
    <_>
      <internalNodes>
        0 -1 72011 1.4527130126953125e-01</internalNodes>
      <leafValues>
        -1.3422724604606628e-01 5.6317806243896484e-01</leafValues></_>
    <_>
      <internalNodes>
        0 -1 2843779 -8.5265804082155228e-03</internalNodes>
      <leafValues>
        3.5403397679328918e-01 -1.8042589724063873e-01</leafValues></_>
    <_>
      <internalNodes>
        0 -1 2459150 -3.3063553273677826e-02</internalNodes>
      <leafValues>
        -5.2236080169677734e-01 1.1256588995456696e-01</leafValues></_>
    <_>
      <internalNodes>
        0 -1 4217038 2.0267175386834424e-06</internalNodes>
      <leafValues>
        -1.7874959111213684e-01 3.0079889297485352e-01</leafValues></_>
    <_>
      <internalNodes>
        0 -1 3397030 9.5605514943599701e-03</internalNodes>
      <leafValues>
        -1.2626421451568604e-01 5.2261531352996826e-01</leafValues></_>
    <_>
      <internalNodes>
        0 -1 2625790 -2.0062550447619287e-06</internalNodes>
      <leafValues>
        3.0618795752525330e-01 -1.6817830502986908e-01</leafValues></_>
    <_>
      <internalNodes>
        0 -1 3836810 7.2231015656143427e-04</internalNodes>
      <leafValues>
        -1.7691713571548462e-01 2.8589954972267151e-01</leafValues></_>
    <_>
      <internalNodes>
        0 -1 2961342 5.7900110259652138e-03</internalNodes>
      <leafValues>
        9.3680232763290405e-02 -6.1572676897048950e-01</leafValues></_>
    <_>
      <internalNodes>
        0 -1 466590 -2.7320193112245761e-05</internalNodes>
      <leafValues>
        -3.8775423169136047e-01 1.3111461699008942e-01</leafValues></_>
    <_>
      <internalNodes>
        0 -1 4432806 2.9488896871043835e-06</internalNodes>
      <leafValues>
        -1.8581625819206238e-01 2.8828582167625427e-01</leafValues></_>
    <_>
      <internalNodes>
        0 -1 1510456 -1.8561758100986481e-02</internalNodes>
      <leafValues>
        5.9718453884124756e-01 -8.6120963096618652e-02</leafValues></_>
    <_>
      <internalNodes>
        0 -1 2962858 2.5729927983775269e-06</internalNodes>
      <leafValues>
        -2.4987116456031799e-01 2.3211869597434998e-01</leafValues></_>
    <_>
      <internalNodes>
        0 -1 2377706 -3.6914859083481133e-04</internalNodes>
      <leafValues>
        -3.1987765431404114e-01 1.6745881736278534e-01</leafValues></_></weakClassifiers></stage14>
</opencv_storage>
